digraph Tree {
node [shape=box, fontname="helvetica"] ;
edge [fontname="helvetica"] ;
0 [label="Medicine_MRP <= 153.98\nsquared_error = 2867028.567\nsamples = 100.0%\nvalue = 2280.583"] ;
1 [label="Area_Type_Industrial <= 0.5\nsquared_error = 954586.608\nsamples = 50.5%\nvalue = 1462.239"] ;
0 -> 1 [labeldistance=2.5, labelangle=45, headlabel="True"] ;
2 [label="Medicine_MRP <= 86.684\nsquared_error = 872491.086\nsamples = 44.0%\nvalue = 1630.44"] ;
1 -> 2 ;
3 [label="DistArea_ID_Area019 <= 0.5\nsquared_error = 233012.375\nsamples = 14.5%\nvalue = 964.57"] ;
2 -> 3 ;
4 [label="Medicine_MRP <= 69.606\nsquared_error = 155322.273\nsamples = 12.5%\nvalue = 882.807"] ;
3 -> 4 ;
5 [label="squared_error = 107400.583\nsamples = 9.7%\nvalue = 806.517"] ;
4 -> 5 ;
6 [label="squared_error = 231346.288\nsamples = 2.8%\nvalue = 1148.023"] ;
4 -> 6 ;
7 [label="Medicine_MRP <= 63.697\nsquared_error = 411664.236\nsamples = 1.9%\nvalue = 1498.215"] ;
3 -> 7 ;
8 [label="squared_error = 189292.52\nsamples = 1.2%\nvalue = 1193.569"] ;
7 -> 8 ;
9 [label="squared_error = 368572.023\nsamples = 0.7%\nvalue = 2008.03"] ;
7 -> 9 ;
10 [label="DistArea_ID_Area019 <= 0.5\nsquared_error = 862281.207\nsamples = 29.6%\nvalue = 1956.27"] ;
2 -> 10 ;
11 [label="Medicine_MRP <= 120.107\nsquared_error = 675377.433\nsamples = 26.1%\nvalue = 1820.553"] ;
10 -> 11 ;
12 [label="squared_error = 446017.254\nsamples = 13.6%\nvalue = 1589.413"] ;
11 -> 12 ;
13 [label="squared_error = 803630.32\nsamples = 12.5%\nvalue = 2072.334"] ;
11 -> 13 ;
14 [label="Medicine_MRP <= 119.473\nsquared_error = 1089606.951\nsamples = 3.5%\nvalue = 2974.437"] ;
10 -> 14 ;
15 [label="squared_error = 689339.504\nsamples = 1.9%\nvalue = 2689.594"] ;
14 -> 15 ;
16 [label="squared_error = 1355036.953\nsamples = 1.6%\nvalue = 3314.666"] ;
14 -> 16 ;
17 [label="Medicine_MRP <= 91.828\nsquared_error = 20752.874\nsamples = 6.5%\nvalue = 322.802"] ;
1 -> 17 ;
18 [label="Medicine_MRP <= 59.352\nsquared_error = 6780.531\nsamples = 2.5%\nvalue = 241.68"] ;
17 -> 18 ;
19 [label="Medicine_MRP <= 56.807\nsquared_error = 3072.787\nsamples = 1.1%\nvalue = 202.857"] ;
18 -> 19 ;
20 [label="squared_error = 2835.028\nsamples = 0.9%\nvalue = 194.555"] ;
19 -> 20 ;
21 [label="squared_error = 2791.096\nsamples = 0.2%\nvalue = 232.648"] ;
19 -> 21 ;
22 [label="Counterfeit_Weight <= 16.95\nsquared_error = 7562.883\nsamples = 1.3%\nvalue = 274.594"] ;
18 -> 22 ;
23 [label="squared_error = 8368.899\nsamples = 1.1%\nvalue = 282.286"] ;
22 -> 23 ;
24 [label="squared_error = 1562.436\nsamples = 0.2%\nvalue = 235.108"] ;
22 -> 24 ;
25 [label="Counterfeit_Sales <= 33.5\nsquared_error = 22803.764\nsamples = 4.0%\nvalue = 373.318"] ;
17 -> 25 ;
26 [label="Medicine_MRP <= 110.636\nsquared_error = 15292.577\nsamples = 2.0%\nvalue = 346.291"] ;
25 -> 26 ;
27 [label="squared_error = 6639.138\nsamples = 0.6%\nvalue = 297.443"] ;
26 -> 27 ;
28 [label="squared_error = 17453.181\nsamples = 1.4%\nvalue = 366.228"] ;
26 -> 28 ;
29 [label="Medicine_MRP <= 119.243\nsquared_error = 28971.834\nsamples = 2.0%\nvalue = 400.946"] ;
25 -> 29 ;
30 [label="squared_error = 19763.617\nsamples = 0.9%\nvalue = 367.811"] ;
29 -> 30 ;
31 [label="squared_error = 35227.735\nsamples = 1.1%\nvalue = 429.939"] ;
29 -> 31 ;
32 [label="Area_Type_Industrial <= 0.5\nsquared_error = 3437802.512\nsamples = 49.5%\nvalue = 3115.906"] ;
0 -> 32 [labeldistance=2.5, labelangle=-45, headlabel="False"] ;
33 [label="Counterfeit_Sales <= 39.0\nsquared_error = 2849865.248\nsamples = 43.2%\nvalue = 3486.786"] ;
32 -> 33 ;
34 [label="Medicine_MRP <= 213.336\nsquared_error = 2244069.413\nsamples = 37.8%\nvalue = 3257.159"] ;
33 -> 34 ;
35 [label="Medicine_MRP <= 180.096\nsquared_error = 1550893.545\nsamples = 24.7%\nvalue = 2877.834"] ;
34 -> 35 ;
36 [label="squared_error = 1133828.834\nsamples = 11.2%\nvalue = 2589.533"] ;
35 -> 36 ;
37 [label="squared_error = 1769903.048\nsamples = 13.5%\nvalue = 3115.791"] ;
35 -> 37 ;
38 [label="SidEffect_Level_mild <= 0.5\nsquared_error = 2768195.431\nsamples = 13.1%\nvalue = 3971.257"] ;
34 -> 38 ;
39 [label="squared_error = 2376266.729\nsamples = 1.9%\nvalue = 3476.13"] ;
38 -> 39 ;
40 [label="squared_error = 2786072.695\nsamples = 11.2%\nvalue = 4055.507"] ;
38 -> 40 ;
41 [label="Medicine_MRP <= 200.537\nsquared_error = 4133571.558\nsamples = 5.4%\nvalue = 5099.182"] ;
33 -> 41 ;
42 [label="Medicine_MRP <= 181.892\nsquared_error = 2466061.981\nsamples = 3.0%\nvalue = 4349.859"] ;
41 -> 42 ;
43 [label="squared_error = 1942939.026\nsamples = 1.7%\nvalue = 4032.104"] ;
42 -> 43 ;
44 [label="squared_error = 2848854.738\nsamples = 1.3%\nvalue = 4772.329"] ;
42 -> 44 ;
45 [label="Medicine_MRP <= 236.321\nsquared_error = 4634055.515\nsamples = 2.4%\nvalue = 6047.399"] ;
41 -> 45 ;
46 [label="squared_error = 2950306.204\nsamples = 1.1%\nvalue = 5627.89"] ;
45 -> 46 ;
47 [label="squared_error = 5882375.178\nsamples = 1.2%\nvalue = 6436.943"] ;
45 -> 47 ;
48 [label="Medicine_MRP <= 180.861\nsquared_error = 73663.885\nsamples = 6.3%\nvalue = 576.672"] ;
32 -> 48 ;
49 [label="Availability_rating <= 0.058\nsquared_error = 42464.061\nsamples = 2.1%\nvalue = 473.793"] ;
48 -> 49 ;
50 [label="Medicine_MRP <= 163.068\nsquared_error = 55046.06\nsamples = 0.6%\nvalue = 560.47"] ;
49 -> 50 ;
51 [label="squared_error = 22610.585\nsamples = 0.3%\nvalue = 461.18"] ;
50 -> 51 ;
52 [label="squared_error = 67960.565\nsamples = 0.3%\nvalue = 670.792"] ;
50 -> 52 ;
53 [label="Counterfeit_Weight <= 12.425\nsquared_error = 34118.686\nsamples = 1.5%\nvalue = 442.123"] ;
49 -> 53 ;
54 [label="squared_error = 50554.389\nsamples = 0.4%\nvalue = 515.442"] ;
53 -> 54 ;
55 [label="squared_error = 24881.246\nsamples = 1.1%\nvalue = 413.773"] ;
53 -> 55 ;
56 [label="Medicine_MRP <= 229.067\nsquared_error = 81255.534\nsamples = 4.2%\nvalue = 627.398"] ;
48 -> 56 ;
57 [label="Counterfeit_Weight <= 17.45\nsquared_error = 76420.343\nsamples = 2.7%\nvalue = 596.022"] ;
56 -> 57 ;
58 [label="squared_error = 68765.998\nsamples = 2.2%\nvalue = 572.398"] ;
57 -> 58 ;
59 [label="squared_error = 97479.014\nsamples = 0.5%\nvalue = 707.497"] ;
57 -> 59 ;
60 [label="Medicine_MRP <= 238.318\nsquared_error = 84976.49\nsamples = 1.5%\nvalue = 682.081"] ;
56 -> 60 ;
61 [label="squared_error = 132017.888\nsamples = 0.3%\nvalue = 797.302"] ;
60 -> 61 ;
62 [label="squared_error = 71002.596\nsamples = 1.3%\nvalue = 656.626"] ;
60 -> 62 ;
}